%YAML:1.0
---
opencv_ml_svm:
   format: 3
   svmType: C_SVC
   kernel:
      type: RBF
      gamma: 1.
   C: 1000.
   term_criteria: { epsilon:1.1920928955078125e-07, iterations:1000 }
   var_count: 200
   class_count: 3
   class_labels: !!opencv-matrix
      rows: 3
      cols: 1
      dt: i
      data: [ 1, 2, 3 ]
   sv_total: 12
   support_vectors:
      - [ 0., 2.37812125e-03, 4.75624250e-03, 1.18906063e-03,
          1.30796665e-02, 4.75624250e-03, 4.75624250e-03, 3.56718199e-03,
          2.37812125e-03, 3.56718199e-03, 9.51248500e-03, 1.54577885e-02,
          1.18906063e-03, 2.37812125e-03, 3.56718199e-03, 9.51248500e-03,
          4.75624250e-03, 2.37812125e-03, 4.75624250e-03, 7.13436399e-03,
          1.18906063e-03, 1.18906063e-03, 1.66468490e-02, 3.56718199e-03,
          2.49702726e-02, 3.56718199e-03, 1.30796665e-02, 3.56718199e-03,
          1.66468490e-02, 2.37812125e-03, 2.25921515e-02, 1.07015455e-02,
          0., 2.37812125e-03, 3.56718199e-03, 1.18906063e-03,
          2.37812125e-03, 0., 2.37812125e-03, 2.37812125e-03, 0.,
          3.56718199e-03, 2.37812125e-03, 3.56718199e-03, 9.51248500e-03,
          2.37812125e-03, 7.13436399e-03, 9.51248500e-03, 3.56718199e-03,
          0., 7.13436399e-03, 1.66468490e-02, 9.51248500e-03,
          9.51248500e-03, 2.37812125e-03, 2.37812125e-03, 4.75624250e-03,
          1.42687280e-02, 1.07015455e-02, 3.56718199e-03, 7.13436399e-03,
          5.94530301e-03, 1.18906063e-03, 1.18906063e-03, 8.32342450e-03,
          1.18906063e-03, 3.56718199e-03, 4.75624250e-03, 4.75624250e-03,
          4.75624250e-03, 9.51248500e-03, 7.13436399e-03, 2.37812125e-03,
          8.32342450e-03, 3.56718199e-03, 4.75624250e-03, 0.,
          1.18906063e-03, 1.66468490e-02, 2.37812125e-03, 2.37812125e-03,
          2.37812125e-03, 0., 1.18906063e-03, 8.32342450e-03,
          5.94530301e-03, 1.18906063e-03, 7.13436399e-03, 5.94530301e-03,
          0., 1.18906063e-03, 3.56718199e-03, 4.75624250e-03,
          7.13436399e-03, 3.56718199e-03, 1.54577885e-02, 2.37812125e-03,
          9.51248500e-03, 4.75624250e-03, 3.56718199e-03, 3.56718199e-03,
          2.37812125e-03, 2.37812125e-03, 0., 3.56718199e-03,
          3.56718199e-03, 8.32342450e-03, 2.37812125e-03, 5.94530301e-03,
          4.75624250e-03, 1.18906063e-03, 1.18906063e-03, 0.,
          2.37812125e-03, 1.18906063e-03, 3.56718199e-03, 1.18906063e-03,
          8.32342450e-03, 1.18906063e-03, 4.75624250e-03, 4.75624250e-03,
          1.18906063e-03, 3.56718199e-03, 2.37812125e-03, 2.37812125e-03,
          2.37812125e-03, 4.75624250e-03, 2.37812125e-03, 4.75624250e-03,
          1.18906060e-02, 1.18906063e-03, 0., 1.18906063e-03,
          1.30796665e-02, 2.37812125e-03, 0., 0., 3.56718199e-03, 0.,
          1.18906060e-02, 1.18906063e-03, 2.37812125e-03, 1.18906060e-02,
          8.32342450e-03, 1.30796665e-02, 4.75624250e-03, 3.56718199e-03,
          4.75624250e-03, 2.37812125e-03, 1.18906063e-03, 5.94530301e-03,
          3.56718199e-03, 3.56718199e-03, 4.75624250e-03, 9.51248500e-03,
          5.94530301e-03, 2.37812125e-03, 2.37812125e-03, 3.56718199e-03,
          2.37812125e-03, 7.13436399e-03, 2.37812125e-03, 1.07015455e-02,
          1.66468490e-02, 1.18906063e-03, 3.56718199e-03, 0.,
          2.37812125e-03, 2.37812125e-03, 0., 3.56718199e-03,
          7.13436399e-03, 3.56718199e-03, 5.94530301e-03, 1.07015455e-02,
          1.18906060e-02, 7.13436399e-03, 0., 3.56718199e-03,
          2.61593331e-02, 1.18906063e-03, 3.56718199e-03, 0.,
          1.07015455e-02, 1.18906063e-03, 5.94530301e-03, 1.18906063e-03,
          7.13436399e-03, 3.56718199e-03, 3.56718199e-03, 3.56718199e-03,
          1.18906063e-03, 4.75624250e-03, 8.32342450e-03, 1.18906060e-02,
          1.54577885e-02, 1.18906063e-03, 1.18906063e-03, 3.56718199e-03,
          4.75624250e-03 ]
      - [ 2.55427836e-03, 2.55427836e-03, 1.02171134e-02, 1.27713918e-03,
          5.10855671e-03, 1.02171134e-02, 5.10855671e-03, 2.17113663e-02,
          6.38569612e-03, 1.02171134e-02, 3.83141753e-03, 1.27713918e-03,
          1.02171134e-02, 2.55427836e-03, 0., 1.02171134e-02,
          2.17113663e-02, 6.38569612e-03, 1.27713918e-03, 3.83141753e-03,
          5.10855671e-03, 1.14942528e-02, 6.38569612e-03, 0.,
          1.27713922e-02, 1.02171134e-02, 6.38569612e-03, 2.04342268e-02,
          8.93997401e-03, 6.38569612e-03, 5.10855671e-03, 8.93997401e-03,
          0., 2.55427836e-03, 6.38569612e-03, 6.38569612e-03,
          2.55427836e-03, 2.55427836e-03, 5.10855671e-03, 0., 0.,
          1.53256701e-02, 1.27713918e-03, 2.55427836e-03, 5.10855671e-03,
          8.93997401e-03, 6.38569612e-03, 6.38569612e-03, 0.,
          1.27713918e-03, 5.10855671e-03, 3.83141753e-03, 0., 0.,
          7.66283507e-03, 7.66283507e-03, 5.10855671e-03, 8.93997401e-03,
          5.10855671e-03, 2.55427836e-03, 7.66283507e-03, 7.66283507e-03,
          0., 3.83141753e-03, 3.83141753e-03, 0., 1.27713918e-03,
          1.78799480e-02, 1.40485307e-02, 7.66283507e-03, 0.,
          1.14942528e-02, 0., 7.66283507e-03, 2.55427836e-03,
          1.27713918e-03, 0., 5.10855671e-03, 0., 7.66283507e-03,
          1.27713918e-03, 3.83141753e-03, 2.55427836e-03, 5.10855671e-03,
          2.55427836e-03, 1.14942528e-02, 5.10855671e-03, 0.,
          1.02171134e-02, 7.66283507e-03, 1.02171134e-02, 2.55427836e-03,
          3.83141753e-03, 0., 1.27713918e-03, 0., 3.83141753e-03, 0.,
          1.02171134e-02, 1.27713918e-03, 1.66028086e-02, 1.02171134e-02,
          2.55427836e-03, 8.93997401e-03, 3.83141753e-03, 3.83141753e-03,
          1.27713918e-03, 6.38569612e-03, 7.66283507e-03, 0.,
          1.14942528e-02, 1.27713918e-03, 6.38569612e-03, 1.91570874e-02,
          3.83141753e-03, 1.27713922e-02, 3.83141753e-03, 0.,
          6.38569612e-03, 2.55427836e-03, 1.27713922e-02, 1.14942528e-02,
          3.83141753e-03, 2.55427836e-03, 1.27713922e-02, 1.02171134e-02,
          2.55427836e-03, 2.55427836e-03, 0., 1.14942528e-02,
          2.55427836e-03, 1.27713918e-03, 5.10855671e-03, 0.,
          1.14942528e-02, 6.38569612e-03, 1.27713918e-03, 2.55427836e-03,
          1.27713918e-03, 2.55427836e-03, 0., 2.55427836e-03, 0.,
          3.83141753e-03, 2.55427836e-03, 1.14942528e-02, 3.83141753e-03,
          1.14942528e-02, 2.55427836e-03, 7.66283507e-03, 5.10855671e-03,
          3.83141753e-03, 2.17113663e-02, 1.14942528e-02, 2.55427836e-03,
          8.93997401e-03, 1.27713918e-03, 3.83141753e-03, 3.83141753e-03,
          6.38569612e-03, 3.83141753e-03, 0., 1.02171134e-02,
          7.66283507e-03, 6.38569612e-03, 6.38569612e-03, 0., 0.,
          3.83141753e-03, 0., 1.27713918e-03, 8.93997401e-03, 0., 0.,
          1.27713918e-03, 0., 2.55427836e-03, 3.83141753e-03,
          1.27713918e-03, 0., 5.10855671e-03, 6.38569612e-03,
          2.55427836e-03, 5.10855671e-03, 0., 3.83141753e-03,
          5.10855671e-03, 0., 1.27713918e-03, 1.27713918e-03, 0.,
          1.27713918e-03, 0., 1.27713922e-02, 1.27713918e-03,
          1.27713918e-03, 1.27713918e-03, 3.83141753e-03, 0.,
          1.27713918e-03 ]
      - [ 1.18906063e-03, 1.18906063e-03, 1.18906060e-02, 1.07015455e-02,
          3.56718199e-03, 5.94530301e-03, 1.18906063e-03, 4.75624250e-03,
          0., 4.75624250e-03, 0., 2.61593331e-02, 2.37812125e-03, 0.,
          3.56718199e-03, 5.94530301e-03, 1.18906060e-02, 9.51248500e-03,
          3.56718199e-03, 2.37812125e-03, 3.56718199e-03, 0., 0., 0.,
          3.56718199e-03, 3.56718199e-03, 3.56718199e-03, 2.37812125e-03,
          0., 5.94530301e-03, 2.37812125e-03, 4.75624250e-03,
          1.18906063e-03, 1.30796665e-02, 1.18906063e-03, 3.56718199e-03,
          1.18906063e-03, 0., 1.78359095e-02, 1.66468490e-02, 0.,
          3.56718199e-03, 7.13436399e-03, 4.75624250e-03, 3.56718199e-03,
          3.56718199e-03, 4.75624250e-03, 1.07015455e-02, 2.37812125e-03,
          0., 4.75624250e-03, 0., 3.09155770e-02, 1.18906063e-03,
          2.37812125e-03, 3.56718199e-03, 1.18906063e-03, 4.75624250e-03,
          4.75624250e-03, 0., 1.18906063e-03, 3.56718199e-03, 0.,
          3.56718199e-03, 1.18906063e-03, 2.37812125e-03, 7.13436399e-03,
          1.18906063e-03, 1.18906063e-03, 1.18906063e-03, 3.56718199e-03,
          4.75624250e-03, 2.97265165e-02, 3.56718199e-03, 0.,
          1.18906063e-03, 9.39357877e-02, 4.75624250e-03, 2.02140305e-02,
          9.51248500e-03, 2.37812125e-03, 0., 1.18906063e-03,
          5.94530301e-03, 1.18906063e-03, 2.37812125e-03, 1.66468490e-02,
          1.07015455e-02, 4.75624250e-03, 3.56718199e-03, 0.,
          8.32342450e-03, 3.56718199e-03, 2.37812125e-03, 1.18906063e-03,
          4.75624250e-03, 7.13436399e-03, 4.75624250e-03, 2.37812125e-03,
          0., 8.32342450e-03, 2.37812125e-03, 7.13436399e-03,
          1.18906063e-03, 3.56718199e-03, 2.37812125e-03, 2.37812125e-03,
          8.32342450e-03, 3.56718199e-03, 4.75624250e-03, 3.56718199e-03,
          3.56718199e-03, 3.56718199e-03, 1.18906063e-03, 7.13436399e-03,
          2.37812125e-03, 0., 4.75624250e-03, 2.37812125e-03,
          3.56718199e-03, 0., 7.13436399e-03, 4.75624250e-03,
          4.75624250e-03, 3.56718199e-03, 1.18906063e-03, 1.18906063e-03,
          2.37812125e-03, 2.37812125e-03, 8.32342450e-03, 4.75624250e-03,
          0., 3.56718199e-03, 1.07015455e-02, 1.18906063e-03,
          3.56718199e-03, 0., 1.42687280e-02, 3.56718199e-03, 0., 0.,
          8.32342450e-03, 0., 1.30796665e-02, 1.18906063e-03,
          3.56718199e-03, 0., 1.18906063e-03, 3.56718199e-03,
          1.18906063e-03, 3.56718199e-03, 0., 1.30796665e-02,
          8.32342450e-03, 3.56718199e-03, 5.94530301e-03, 1.18906063e-03,
          2.37812125e-03, 5.94530301e-03, 3.56718199e-03, 7.13436399e-03,
          2.25921515e-02, 1.18906063e-03, 9.51248500e-03, 9.51248500e-03,
          2.37812125e-03, 1.18906063e-03, 0., 8.32342450e-03,
          3.09155770e-02, 5.94530301e-03, 2.37812125e-03, 0.,
          1.18906063e-03, 0., 4.75624250e-03, 4.75624250e-03,
          3.56718199e-03, 1.18906060e-02, 2.37812125e-03, 0.,
          5.94530301e-03, 1.18906063e-03, 3.56718199e-03, 0., 0.,
          5.94530301e-03, 9.51248500e-03, 2.37812125e-03, 5.94530301e-03,
          1.18906063e-03, 1.18906063e-03, 1.54577885e-02, 8.32342450e-03,
          1.18906063e-03, 1.18906063e-03, 4.75624250e-03, 0., 0.,
          3.56718199e-03 ]
      - [ 0., 5.30503970e-03, 7.95756001e-03, 8.84173322e-04,
          5.30503970e-03, 6.18921313e-03, 3.53669329e-03, 0.,
          1.23784263e-02, 7.07338657e-03, 6.18921313e-03, 0., 0.,
          1.76834664e-03, 0., 2.65251985e-03, 7.07338657e-03,
          1.76834664e-03, 2.65251985e-03, 1.59151200e-02, 3.53669329e-03,
          1.32625997e-02, 7.95756001e-03, 0., 0., 1.06100794e-02,
          1.76834664e-03, 8.84173322e-04, 3.53669329e-03, 1.76834664e-03,
          5.30503970e-03, 6.18921313e-03, 5.30503970e-03, 0.,
          1.76834664e-03, 3.53669329e-03, 1.32625997e-02, 6.18921313e-03,
          1.76834664e-03, 3.53669329e-03, 4.42086672e-03, 8.84173345e-03,
          3.53669329e-03, 8.84173322e-04, 1.32625997e-02, 6.18921313e-03,
          4.42086672e-03, 4.42086672e-03, 2.38726791e-02, 3.53669329e-03,
          1.23784263e-02, 2.65251985e-03, 0., 7.95756001e-03,
          6.18921313e-03, 7.07338657e-03, 3.53669329e-03, 3.53669329e-03,
          8.84173322e-04, 1.76834664e-03, 0., 1.76834664e-03, 0.,
          8.84173345e-03, 7.95756001e-03, 1.14942528e-02, 8.84173345e-03,
          4.42086672e-03, 3.53669329e-03, 2.65251985e-03, 9.72590689e-03,
          7.95756001e-03, 1.76834664e-03, 8.84173345e-03, 0.,
          2.65251985e-03, 0., 2.65251985e-03, 0., 5.30503970e-03,
          5.30503970e-03, 7.07338657e-03, 0., 7.95756001e-03,
          1.06100794e-02, 3.53669329e-03, 1.76834664e-03, 1.32625997e-02,
          4.42086672e-03, 0., 8.84173345e-03, 2.65251985e-03,
          1.76834664e-03, 0., 2.65251985e-03, 8.84173345e-03,
          8.84173322e-04, 1.76834664e-03, 3.53669329e-03, 1.76834664e-03,
          5.30503970e-03, 8.84173345e-03, 4.42086672e-03, 3.53669329e-03,
          9.72590689e-03, 2.65251985e-03, 3.53669329e-03, 4.42086672e-03,
          7.95756001e-03, 7.95756001e-03, 3.53669329e-03, 6.18921313e-03,
          7.95756001e-03, 4.42086672e-03, 5.30503970e-03, 1.67992935e-02,
          2.03359872e-02, 6.18921313e-03, 9.72590689e-03, 5.30503970e-03,
          4.42086672e-03, 5.30503970e-03, 9.72590689e-03, 1.76834664e-03,
          3.53669329e-03, 5.30503970e-03, 2.65251985e-03, 7.07338657e-03,
          1.76834664e-03, 1.06100794e-02, 1.32625997e-02, 8.84173322e-04,
          1.76834664e-03, 4.42086672e-03, 3.53669329e-03, 1.76834664e-03,
          7.95756001e-03, 0., 9.72590689e-03, 4.42086672e-03, 0.,
          4.42086672e-03, 2.65251985e-03, 4.42086672e-03, 5.30503970e-03,
          7.95756001e-03, 4.42086672e-03, 0., 3.53669329e-03,
          4.42086672e-03, 7.07338657e-03, 7.95756001e-03, 4.42086672e-03,
          7.07338657e-03, 4.42086672e-03, 4.42086672e-03, 1.76834664e-03,
          1.32625997e-02, 8.84173345e-03, 2.65251985e-03, 9.72590689e-03,
          1.76834664e-03, 3.53669329e-03, 4.42086672e-03, 6.18921313e-03,
          1.76834664e-03, 2.65251985e-03, 4.42086672e-03, 3.53669329e-03,
          0., 1.14942528e-02, 4.42086672e-03, 9.72590689e-03, 0.,
          8.84173322e-04, 4.42086672e-03, 4.42086672e-03, 8.84173345e-03,
          2.65251985e-03, 7.95756001e-03, 3.53669329e-03, 7.07338657e-03,
          1.76834664e-03, 8.84173322e-04, 0., 2.65251985e-03,
          8.84173345e-03, 8.84173322e-04, 5.30503970e-03, 8.84173322e-04,
          4.42086672e-03, 1.14942528e-02, 1.76834664e-03, 7.95756001e-03,
          7.95756001e-03, 9.72590689e-03, 4.42086672e-03, 1.76834664e-03,
          7.07338657e-03, 4.42086672e-03 ]
      - [ 3.56718199e-03, 2.37812125e-03, 1.42687280e-02, 1.30796665e-02,
          4.75624250e-03, 7.13436399e-03, 1.42687280e-02, 8.32342450e-03,
          3.56718199e-03, 9.51248500e-03, 1.18906063e-03, 5.94530301e-03,
          8.32342450e-03, 4.75624250e-03, 2.37812125e-03, 5.94530301e-03,
          1.30796665e-02, 1.42687280e-02, 1.07015455e-02, 3.56718199e-03,
          1.18906063e-03, 9.51248500e-03, 1.18906063e-03, 4.75624250e-03,
          1.18906063e-03, 5.94530301e-03, 1.78359095e-02, 2.37812125e-03,
          2.37812125e-03, 1.54577885e-02, 3.56718199e-03, 7.13436399e-03,
          1.18906060e-02, 1.18906063e-03, 2.37812125e-03, 2.37812125e-03,
          3.56718199e-03, 0., 1.07015455e-02, 3.56718199e-03,
          7.13436399e-03, 2.37812125e-03, 3.56718199e-03, 3.56718199e-03,
          2.37812125e-03, 3.56718199e-03, 3.56718199e-03, 5.94530301e-03,
          0., 2.37812125e-03, 8.32342450e-03, 4.75624250e-03,
          3.56718199e-03, 0., 1.18906063e-03, 1.18906060e-02,
          5.94530301e-03, 0., 5.94530301e-03, 3.56718199e-03,
          1.07015455e-02, 1.18906063e-03, 3.56718199e-03, 3.56718199e-03,
          3.56718199e-03, 2.37812125e-03, 3.56718199e-03, 5.94530301e-03,
          4.75624250e-03, 1.18906060e-02, 5.94530301e-03, 1.18906063e-03,
          0., 5.94530301e-03, 7.13436399e-03, 9.51248500e-03, 0.,
          2.37812125e-03, 1.18906063e-03, 4.75624250e-03, 4.75624250e-03,
          1.07015455e-02, 4.75624250e-03, 4.75624250e-03, 2.37812125e-03,
          2.37812125e-03, 9.51248500e-03, 7.13436399e-03, 1.66468490e-02,
          8.32342450e-03, 1.54577885e-02, 9.51248500e-03, 7.13436399e-03,
          1.18906063e-03, 3.56718199e-03, 5.94530301e-03, 2.37812125e-03,
          4.75624250e-03, 9.51248500e-03, 0., 9.51248500e-03, 0.,
          2.37812125e-03, 9.51248500e-03, 4.75624250e-03, 1.18906063e-03,
          9.51248500e-03, 2.37812125e-03, 5.94530301e-03, 3.56718199e-03,
          4.75624250e-03, 3.56718199e-03, 4.75624250e-03, 7.13436399e-03,
          4.75624250e-03, 1.42687280e-02, 1.18906063e-03, 2.37812125e-03,
          9.51248500e-03, 2.37812125e-03, 0., 2.37812125e-03, 0.,
          8.32342450e-03, 9.51248500e-03, 3.56718199e-03, 3.56718199e-03,
          2.37812125e-03, 0., 5.94530301e-03, 1.18906063e-03, 0.,
          5.94530301e-03, 5.94530301e-03, 3.56718199e-03, 5.94530301e-03,
          5.94530301e-03, 3.56718199e-03, 4.75624250e-03, 5.94530301e-03,
          0., 4.75624250e-03, 0., 5.94530301e-03, 7.13436399e-03,
          7.13436399e-03, 2.37812125e-03, 1.18906063e-03, 2.37812125e-03,
          1.42687280e-02, 2.37812125e-03, 1.18906063e-03, 7.13436399e-03,
          1.18906060e-02, 2.37812125e-03, 8.32342450e-03, 2.37812125e-03,
          9.51248500e-03, 4.75624250e-03, 7.13436399e-03, 2.37812125e-03,
          2.37812125e-03, 7.13436399e-03, 1.07015455e-02, 7.13436399e-03,
          2.37812125e-03, 2.37812125e-03, 1.18906063e-03, 4.75624250e-03,
          0., 2.37812125e-03, 2.37812125e-03, 3.56718199e-03, 0.,
          8.32342450e-03, 4.75624250e-03, 4.75624250e-03, 4.75624250e-03,
          2.37812125e-03, 1.18906063e-03, 5.94530301e-03, 2.37812125e-03,
          2.37812125e-03, 4.75624250e-03, 7.13436399e-03, 1.18906063e-03,
          3.56718199e-03, 2.37812125e-03, 3.56718199e-03, 5.94530301e-03,
          2.37812125e-03, 3.56718199e-03, 3.56718199e-03, 8.32342450e-03,
          4.75624250e-03, 2.37812125e-03, 1.18906063e-03, 1.18906063e-03,
          5.94530301e-03, 9.51248500e-03 ]
      - [ 0., 5.26315812e-03, 1.05263162e-02, 0., 5.26315812e-03,
          5.26315812e-03, 5.26315812e-03, 1.31578948e-02, 0., 0.,
          2.63157906e-03, 0., 0., 5.26315812e-03, 5.26315812e-03,
          5.26315812e-03, 0., 0., 5.26315812e-03, 7.89473765e-03,
          1.05263162e-02, 2.36842111e-02, 0., 2.63157906e-03, 0.,
          5.26315812e-03, 0., 0., 2.63157906e-03, 2.63157906e-03,
          7.89473765e-03, 2.63157906e-03, 2.63157906e-03, 0.,
          2.63157906e-03, 0., 0., 1.05263162e-02, 0., 0., 0.,
          5.26315812e-03, 1.57894753e-02, 0., 1.31578948e-02,
          5.26315812e-03, 2.63157906e-03, 0., 0., 7.89473765e-03,
          5.26315812e-03, 0., 0., 5.26315812e-03, 2.63157906e-03,
          5.26315812e-03, 2.63157897e-02, 0., 7.89473765e-03,
          3.42105292e-02, 5.26315812e-03, 5.26315812e-03, 2.63157906e-03,
          2.89473701e-02, 2.10526325e-02, 1.05263162e-02, 7.89473765e-03,
          1.05263162e-02, 7.89473765e-03, 7.89473765e-03, 5.26315812e-03,
          1.84210539e-02, 0., 1.84210539e-02, 1.05263162e-02, 0., 0.,
          5.26315812e-03, 0., 2.63157906e-03, 1.84210539e-02,
          1.57894753e-02, 0., 2.63157906e-03, 0., 2.63157906e-03, 0., 0.,
          0., 2.63157906e-03, 5.26315812e-03, 2.63157906e-03,
          1.57894753e-02, 0., 0., 7.89473765e-03, 2.63157906e-03, 0.,
          5.26315812e-03, 5.26315812e-03, 2.63157906e-03, 0., 0.,
          2.63157906e-03, 7.89473765e-03, 2.63157906e-03, 1.84210539e-02,
          0., 0., 0., 1.31578948e-02, 2.63157906e-03, 5.26315812e-03,
          1.05263162e-02, 5.26315812e-03, 5.26315812e-03, 0.,
          2.63157906e-03, 5.26315812e-03, 2.63157906e-03, 0., 0.,
          5.26315812e-03, 0., 2.63157906e-03, 2.10526325e-02,
          5.26315812e-03, 1.05263162e-02, 0., 5.26315812e-03, 0.,
          2.63157906e-03, 7.89473765e-03, 0., 0., 7.89473765e-03, 0.,
          2.63157906e-03, 7.89473765e-03, 5.26315812e-03, 2.63157906e-03,
          0., 5.26315812e-03, 2.63157906e-03, 2.63157906e-03,
          5.26315812e-03, 5.26315812e-03, 0., 1.57894753e-02,
          7.89473765e-03, 7.89473765e-03, 2.36842111e-02, 2.63157906e-03,
          2.63157906e-03, 5.26315812e-03, 1.05263162e-02, 0., 0., 0.,
          7.89473765e-03, 0., 0., 2.63157906e-03, 5.26315812e-03,
          2.63157906e-03, 2.63157906e-03, 2.63157906e-03, 0.,
          2.63157906e-03, 0., 1.05263162e-02, 1.31578948e-02, 0.,
          7.89473765e-03, 7.89473765e-03, 0., 5.26315812e-03,
          5.26315812e-03, 0., 1.84210539e-02, 0., 0., 5.26315812e-03,
          7.89473765e-03, 0., 1.05263162e-02, 1.84210539e-02, 0.,
          2.63157906e-03, 2.63157906e-03, 0., 1.57894753e-02, 0.,
          7.89473765e-03, 2.63157906e-03, 2.63157906e-03, 1.05263162e-02,
          0., 0., 5.26315812e-03 ]
      - [ 3.83141753e-03, 1.91570877e-03, 1.91570877e-03, 3.83141753e-03,
          7.66283507e-03, 3.83141753e-03, 0., 1.72413792e-02,
          7.66283507e-03, 7.66283507e-03, 1.91570877e-03, 0.,
          5.74712642e-03, 3.83141753e-03, 3.83141753e-03, 5.74712642e-03,
          0., 1.91570877e-03, 0., 7.66283507e-03, 1.34099610e-02,
          1.72413792e-02, 0., 0., 0., 0., 1.91570877e-03, 1.34099610e-02,
          0., 5.74712642e-03, 0., 3.83141753e-03, 3.83141753e-03, 0., 0.,
          3.83141753e-03, 1.91570877e-03, 0., 9.57854372e-03,
          1.14942528e-02, 1.14942528e-02, 9.57854372e-03, 1.91570877e-03,
          0., 7.66283507e-03, 1.91570877e-03, 1.14942528e-02,
          3.83141753e-03, 0., 0., 5.74712642e-03, 1.91570877e-03, 0.,
          3.83141753e-03, 3.83141753e-03, 0., 2.68199220e-02,
          9.57854372e-03, 5.74712642e-03, 3.63984667e-02, 5.74712642e-03,
          0., 1.91570877e-03, 3.83141753e-03, 5.74712642e-03, 0., 0.,
          7.66283507e-03, 3.83141753e-03, 1.91570877e-03, 5.74712642e-03,
          0., 0., 9.57854372e-03, 7.66283507e-03, 0., 0., 3.83141753e-03,
          3.83141753e-03, 1.91570877e-03, 3.83141753e-03, 5.74712642e-03,
          1.53256701e-02, 1.14942528e-02, 0., 1.14942528e-02, 0., 0., 0.,
          1.91570877e-03, 0., 0., 0., 0., 1.34099610e-02, 0.,
          1.91570877e-03, 1.34099610e-02, 5.74712642e-03, 1.91570877e-03,
          0., 2.29885057e-02, 5.74712642e-03, 0., 1.14942528e-02, 0.,
          4.78927195e-02, 3.83141753e-03, 7.66283507e-03, 0.,
          1.91570877e-03, 1.91570877e-03, 0., 0., 3.83141753e-03, 0., 0.,
          0., 0., 5.74712642e-03, 0., 0., 9.57854372e-03, 1.91570877e-03,
          0., 0., 5.74712642e-03, 7.66283507e-03, 3.83141753e-03,
          7.66283507e-03, 1.91570877e-03, 0., 3.83141753e-03, 0.,
          1.34099610e-02, 3.83141753e-03, 4.21455912e-02, 1.91570877e-03,
          4.78927195e-02, 0., 1.34099610e-02, 9.57854372e-03, 0.,
          1.91570877e-03, 1.72413792e-02, 1.72413792e-02, 1.91570877e-03,
          0., 0., 1.91570877e-03, 7.66283507e-03, 9.57854372e-03,
          5.74712642e-03, 1.91570877e-03, 5.74712642e-03, 0., 0.,
          1.91570874e-02, 5.74712642e-03, 9.57854372e-03, 5.74712642e-03,
          0., 0., 0., 0., 1.53256701e-02, 7.66283507e-03, 1.91570877e-03,
          5.74712642e-03, 0., 3.83141753e-03, 1.91570877e-03,
          3.25670503e-02, 1.91570877e-03, 0., 0., 1.14942528e-02,
          3.83141753e-03, 0., 0., 1.91570877e-03, 7.66283507e-03, 0.,
          3.83141753e-03, 0., 9.57854372e-03, 1.91570877e-03, 0.,
          7.66283507e-03, 3.83141753e-03, 1.91570877e-03, 3.83141753e-03,
          0., 5.74712642e-03, 1.91570877e-03, 1.91570877e-03, 0., 0., 0.,
          0. ]
      - [ 5.48589323e-03, 5.48589323e-03, 4.70219413e-03, 5.48589323e-03,
          8.62068962e-03, 3.91849503e-03, 3.13479616e-03, 3.91849503e-03,
          2.35109706e-03, 9.40438826e-03, 9.40438826e-03, 0.,
          7.83699041e-04, 4.70219413e-03, 1.01880878e-02, 7.83699006e-03,
          6.26959233e-03, 7.83699006e-03, 3.91849503e-03, 7.05329143e-03,
          4.70219413e-03, 7.83699006e-03, 2.35109706e-03, 6.26959233e-03,
          2.35109706e-03, 1.56739808e-03, 8.62068962e-03, 8.62068962e-03,
          1.56739808e-03, 6.26959233e-03, 3.13479616e-03, 7.05329143e-03,
          7.05329143e-03, 0., 1.56739808e-03, 7.83699041e-04,
          7.83699041e-04, 2.03761756e-02, 4.70219413e-03, 0.,
          2.35109706e-03, 3.91849503e-03, 7.83699006e-03, 3.13479616e-03,
          2.35109706e-03, 7.83699041e-04, 7.83699006e-03, 3.91849503e-03,
          7.83699041e-04, 1.17554860e-02, 7.05329143e-03, 0., 0.,
          1.01880878e-02, 3.91849503e-03, 6.26959233e-03, 5.48589323e-03,
          1.17554860e-02, 3.91849503e-03, 1.56739808e-03, 3.13479616e-03,
          5.48589323e-03, 1.01880878e-02, 3.13479616e-03, 8.62068962e-03,
          9.40438826e-03, 3.13479616e-03, 3.91849503e-03, 2.35109706e-03,
          3.91849503e-03, 7.83699041e-04, 5.48589323e-03, 0.,
          7.83699006e-03, 4.70219413e-03, 3.91849503e-03, 0.,
          1.56739808e-03, 0., 4.70219413e-03, 2.35109706e-03,
          7.83699006e-03, 9.40438826e-03, 1.56739808e-03, 7.05329143e-03,
          5.48589323e-03, 3.13479616e-03, 2.50783693e-02, 2.35109706e-03,
          7.83699041e-04, 1.01880878e-02, 2.03761756e-02, 8.62068962e-03,
          0., 4.70219413e-03, 1.33228833e-02, 7.83699041e-04,
          9.40438826e-03, 3.13479616e-03, 1.56739808e-03, 7.83699006e-03,
          3.13479616e-03, 1.72413792e-02, 7.05329143e-03, 7.05329143e-03,
          1.56739808e-03, 1.17554860e-02, 2.35109706e-03, 6.26959233e-03,
          3.91849503e-03, 2.35109706e-03, 3.13479616e-03, 4.70219413e-03,
          2.35109706e-03, 4.70219413e-03, 4.70219413e-03, 9.40438826e-03,
          4.70219413e-03, 0., 4.70219413e-03, 7.83699041e-04,
          1.56739808e-03, 3.13479616e-03, 1.56739808e-03, 7.83699006e-03,
          3.91849503e-03, 3.13479616e-03, 2.35109706e-03, 7.05329143e-03,
          5.48589323e-03, 1.56739808e-03, 7.83699041e-04, 3.13479616e-03,
          8.62068962e-03, 5.48589323e-03, 6.26959233e-03, 7.83699006e-03,
          8.62068962e-03, 3.13479616e-03, 1.01880878e-02, 0.,
          2.35109706e-03, 0., 3.91849503e-03, 1.41065829e-02,
          1.56739801e-02, 0., 1.56739808e-03, 3.13479616e-03,
          5.48589323e-03, 1.17554860e-02, 6.26959233e-03, 3.13479616e-03,
          1.56739808e-03, 1.95924751e-02, 7.83699006e-03, 2.35109706e-03,
          1.56739808e-03, 7.05329143e-03, 2.35109706e-03, 1.56739808e-03,
          0., 7.83699041e-04, 3.13479616e-03, 5.48589323e-03,
          3.13479616e-03, 9.40438826e-03, 1.48902815e-02, 1.56739808e-03,
          0., 7.05329143e-03, 3.91849503e-03, 7.83699041e-04,
          1.01880878e-02, 0., 6.26959233e-03, 1.56739808e-03,
          2.35109706e-03, 0., 1.56739808e-03, 6.26959233e-03,
          4.70219413e-03, 1.56739808e-03, 3.91849503e-03, 1.56739808e-03,
          8.62068962e-03, 7.05329143e-03, 9.40438826e-03, 5.48589323e-03,
          7.83699041e-04, 9.40438826e-03, 1.56739808e-03, 0.,
          6.26959233e-03, 2.35109706e-03, 1.56739808e-03, 7.83699041e-04,
          3.13479616e-03, 1.25391847e-02, 7.83699006e-03 ]
      - [ 8.97959154e-03, 1.63265306e-03, 6.53061224e-03, 7.34693883e-03,
          8.16326495e-03, 4.08163248e-03, 4.08163248e-03, 2.44897953e-03,
          1.63265306e-03, 7.34693883e-03, 8.16326495e-03, 5.71428565e-03,
          8.16326530e-04, 8.97959154e-03, 2.44897953e-03, 6.53061224e-03,
          8.97959154e-03, 4.89795906e-03, 4.08163248e-03, 1.63265306e-03,
          1.63265306e-03, 8.16326530e-04, 8.16326530e-04, 8.16326530e-04,
          8.16326530e-04, 8.16326495e-03, 2.44897953e-03, 1.63265306e-03,
          8.16326530e-04, 4.08163248e-03, 1.55102042e-02, 1.22448979e-02,
          4.08163248e-03, 0., 3.26530612e-03, 1.30612245e-02,
          3.26530612e-03, 0., 6.53061224e-03, 3.26530612e-03,
          2.44897953e-03, 4.89795906e-03, 6.53061224e-03, 1.63265306e-03,
          3.26530612e-03, 7.34693883e-03, 5.71428565e-03, 4.08163248e-03,
          8.16326495e-03, 1.63265306e-03, 1.38775511e-02, 2.44897953e-03,
          4.89795906e-03, 5.71428565e-03, 3.26530612e-03, 4.89795906e-03,
          2.44897953e-03, 4.08163248e-03, 4.08163248e-03, 8.16326530e-04,
          7.34693883e-03, 1.06122447e-02, 4.08163248e-03, 2.44897953e-03,
          1.30612245e-02, 4.89795906e-03, 3.26530612e-03, 5.71428565e-03,
          1.63265306e-03, 4.08163248e-03, 1.63265306e-03, 2.44897953e-03,
          1.63265306e-03, 1.79591831e-02, 6.53061224e-03, 8.16326495e-03,
          0., 2.44897953e-03, 1.63265306e-03, 5.71428565e-03,
          3.26530612e-03, 5.71428565e-03, 8.16326530e-04, 4.89795906e-03,
          2.44897953e-03, 4.89795906e-03, 8.16326495e-03, 1.55102042e-02,
          1.22448979e-02, 4.08163248e-03, 6.53061224e-03, 8.97959154e-03,
          6.53061224e-03, 5.71428565e-03, 1.14285713e-02, 1.46938777e-02,
          8.16326530e-04, 1.63265306e-03, 4.89795906e-03, 8.16326530e-04,
          4.89795906e-03, 3.26530612e-03, 1.63265306e-03, 4.08163248e-03,
          1.06122447e-02, 4.89795906e-03, 1.30612245e-02, 8.16326495e-03,
          1.55102042e-02, 2.44897953e-03, 8.16326495e-03, 5.71428565e-03,
          2.44897953e-03, 3.26530612e-03, 1.55102042e-02, 4.08163248e-03,
          8.16326530e-04, 7.34693883e-03, 4.08163248e-03, 6.53061224e-03,
          4.08163248e-03, 8.16326495e-03, 4.89795906e-03, 2.44897953e-03,
          8.16326495e-03, 4.89795906e-03, 7.34693883e-03, 2.44897953e-03,
          2.44897953e-03, 5.71428565e-03, 1.63265306e-03, 0.,
          4.89795906e-03, 2.44897953e-03, 2.44897953e-03, 1.63265306e-03,
          0., 6.53061224e-03, 0., 3.26530612e-03, 4.89795906e-03,
          5.71428565e-03, 3.26530612e-03, 4.89795906e-03, 8.16326530e-04,
          9.79591813e-03, 6.53061224e-03, 0., 8.16326530e-04,
          5.71428565e-03, 8.16326530e-04, 3.26530612e-03, 1.38775511e-02,
          7.34693883e-03, 4.89795906e-03, 1.14285713e-02, 5.71428565e-03,
          8.16326530e-04, 5.71428565e-03, 8.16326495e-03, 3.26530612e-03,
          2.44897953e-03, 1.63265306e-03, 5.71428565e-03, 2.44897953e-03,
          2.44897953e-03, 6.53061224e-03, 0., 4.89795906e-03, 0.,
          1.63265306e-03, 2.44897953e-03, 1.06122447e-02, 8.16326530e-04,
          3.26530612e-03, 4.08163248e-03, 1.22448979e-02, 1.06122447e-02,
          2.44897953e-03, 3.26530612e-03, 1.63265306e-03, 4.89795906e-03,
          8.16326530e-04, 3.26530612e-03, 0., 5.71428565e-03,
          1.30612245e-02, 9.79591813e-03, 3.26530612e-03, 1.95918363e-02,
          3.26530612e-03, 2.44897953e-03, 8.16326530e-04, 9.79591813e-03,
          1.14285713e-02, 0., 3.26530612e-03, 1.63265306e-03, 0.,
          1.06122447e-02 ]
      - [ 0., 2.99145305e-03, 3.41880345e-03, 1.70940172e-03,
          4.70085489e-03, 4.27350448e-03, 3.41880345e-03, 5.98290609e-03,
          2.99145305e-03, 3.41880345e-03, 3.41880345e-03, 2.99145305e-03,
          1.28205132e-03, 8.54700862e-04, 3.84615385e-03, 2.56410264e-03,
          8.11965857e-03, 2.99145305e-03, 5.12820529e-03, 7.69230770e-03,
          1.28205132e-03, 2.13675224e-03, 1.28205132e-03, 1.28205132e-03,
          1.70940172e-03, 3.41880345e-03, 8.11965857e-03, 7.69230770e-03,
          2.13675224e-03, 2.13675224e-03, 8.11965857e-03, 7.26495730e-03,
          5.98290609e-03, 4.27350431e-04, 2.99145305e-03, 5.12820529e-03,
          8.97435937e-03, 9.40170977e-03, 1.28205132e-03, 8.54700862e-04,
          2.99145305e-03, 5.55555569e-03, 4.27350431e-04, 1.70940172e-03,
          1.32478634e-02, 1.02564106e-02, 2.56410264e-03, 5.55555569e-03,
          1.28205132e-03, 2.56410264e-03, 7.69230770e-03, 1.41025642e-02,
          1.28205132e-03, 6.41025649e-03, 5.98290609e-03, 2.56410264e-03,
          6.83760690e-03, 6.41025649e-03, 4.70085489e-03, 1.70940172e-03,
          4.70085489e-03, 2.99145305e-03, 5.12820529e-03, 2.56410264e-03,
          1.15384618e-02, 6.41025649e-03, 7.26495730e-03, 4.27350448e-03,
          5.12820529e-03, 4.70085489e-03, 9.40170977e-03, 5.55555569e-03,
          0., 9.40170977e-03, 9.40170977e-03, 2.13675224e-03, 0.,
          5.55555569e-03, 2.56410264e-03, 5.12820529e-03, 3.84615385e-03,
          3.41880345e-03, 4.27350431e-04, 7.69230770e-03, 5.55555569e-03,
          6.41025649e-03, 2.13675224e-03, 3.41880345e-03, 2.56410264e-03,
          9.40170977e-03, 3.84615385e-03, 1.70940172e-03, 1.83760691e-02,
          3.41880345e-03, 1.11111114e-02, 3.41880345e-03, 8.54700862e-04,
          8.54700862e-04, 5.98290609e-03, 1.70940172e-03, 2.99145305e-03,
          1.15384618e-02, 8.54700897e-03, 4.27350448e-03, 6.41025649e-03,
          1.88034195e-02, 2.13675224e-03, 4.70085489e-03, 5.55555569e-03,
          5.55555569e-03, 4.70085489e-03, 2.13675224e-03, 3.41880345e-03,
          2.56410264e-03, 1.19658122e-02, 3.84615385e-03, 2.56410264e-03,
          2.56410264e-03, 8.54700897e-03, 1.23931626e-02, 5.55555569e-03,
          1.02564106e-02, 1.06837610e-02, 8.54700862e-04, 2.56410264e-03,
          6.83760690e-03, 2.56410264e-03, 3.41880345e-03, 3.41880345e-03,
          1.11111114e-02, 1.28205132e-03, 1.19658122e-02, 5.98290609e-03,
          4.27350431e-04, 6.83760690e-03, 1.02564106e-02, 1.28205132e-03,
          8.54700862e-04, 5.12820529e-03, 9.82906017e-03, 4.27350431e-04,
          8.54700862e-04, 1.28205132e-03, 2.13675224e-03, 4.70085489e-03,
          4.70085489e-03, 1.45299146e-02, 4.70085489e-03, 1.06837610e-02,
          3.84615385e-03, 8.11965857e-03, 2.99145305e-03, 2.99145305e-03,
          3.41880345e-03, 2.99145305e-03, 9.40170977e-03, 4.27350448e-03,
          5.12820529e-03, 2.13675224e-03, 5.12820529e-03, 6.83760690e-03,
          4.27350431e-04, 1.70940172e-03, 8.97435937e-03, 1.06837610e-02,
          6.41025649e-03, 3.41880345e-03, 5.55555569e-03, 2.99145305e-03,
          0., 8.54700897e-03, 8.11965857e-03, 3.84615385e-03,
          2.99145305e-03, 0., 2.13675224e-03, 2.56410264e-03,
          3.84615385e-03, 2.13675224e-03, 4.27350448e-03, 4.27350431e-04,
          1.62393171e-02, 0., 1.11111114e-02, 1.28205132e-03,
          8.97435937e-03, 5.12820529e-03, 7.69230770e-03, 6.41025649e-03,
          1.58119667e-02, 8.54700862e-04, 1.15384618e-02, 2.13675224e-03,
          1.28205132e-03, 4.27350448e-03, 1.62393171e-02, 8.11965857e-03,
          4.27350431e-04, 6.41025649e-03, 2.13675224e-03 ]
      - [ 1.46520149e-03, 4.39560460e-03, 4.21245443e-03, 9.34065972e-03,
          8.79120920e-03, 3.84615385e-03, 5.12820529e-03, 4.21245443e-03,
          9.52380989e-03, 4.76190494e-03, 7.69230770e-03, 6.59340667e-03,
          7.32600747e-04, 2.93040299e-03, 1.04395607e-02, 4.39560460e-03,
          6.77655684e-03, 8.79120920e-03, 3.66300368e-03, 2.19780230e-03,
          4.02930425e-03, 2.74725282e-03, 1.15384618e-02, 3.66300374e-04,
          4.02930425e-03, 2.93040299e-03, 1.35531137e-02, 3.66300368e-03,
          7.32600747e-04, 8.24175868e-03, 7.87545834e-03, 4.21245443e-03,
          3.29670333e-03, 2.56410264e-03, 2.19780230e-03, 4.21245443e-03,
          1.46520149e-03, 1.28205132e-03, 1.19047621e-02, 5.49450563e-03,
          3.47985351e-03, 2.01465213e-03, 8.05860851e-03, 8.24175868e-03,
          2.56410264e-03, 2.56410264e-03, 4.94505512e-03, 5.67765580e-03,
          4.94505512e-03, 2.74725282e-03, 4.57875477e-03, 3.66300374e-04,
          1.28205132e-03, 9.15750954e-03, 3.66300368e-03, 1.83150184e-03,
          4.94505512e-03, 1.15384618e-02, 4.94505512e-03, 3.84615385e-03,
          5.12820529e-03, 6.95970701e-03, 1.37362638e-02, 2.93040299e-03,
          3.29670333e-03, 9.70696006e-03, 3.11355316e-03, 4.94505512e-03,
          4.39560460e-03, 1.83150184e-03, 1.46520149e-03, 3.47985351e-03,
          3.47985351e-03, 7.87545834e-03, 2.19780230e-03, 4.21245443e-03,
          0., 3.84615385e-03, 3.84615385e-03, 4.39560460e-03,
          2.74725282e-03, 2.19780230e-03, 1.83150187e-04, 5.12820529e-03,
          5.49450563e-03, 2.38095247e-03, 6.22710632e-03, 1.31868133e-02,
          3.84615385e-03, 1.09890115e-03, 1.64835167e-03, 1.08058611e-02,
          5.67765580e-03, 6.22710632e-03, 1.06227109e-02, 8.24175868e-03,
          1.28205132e-03, 7.14285718e-03, 5.49450563e-03, 2.74725282e-03,
          2.74725282e-03, 3.47985351e-03, 5.12820529e-03, 4.76190494e-03,
          2.01465213e-03, 2.01465213e-03, 3.84615385e-03, 5.12820529e-03,
          5.86080598e-03, 5.86080598e-03, 2.38095247e-03, 4.57875477e-03,
          4.02930425e-03, 2.38095247e-03, 1.44688645e-02, 1.46520149e-03,
          8.42490885e-03, 1.17216120e-02, 2.19780230e-03, 8.24175868e-03,
          0., 3.29670333e-03, 1.19047621e-02, 3.11355316e-03,
          2.56410264e-03, 3.47985351e-03, 1.28205132e-03, 1.42857144e-02,
          1.19047621e-02, 2.19780230e-03, 1.63003672e-02, 5.49450575e-04,
          5.49450575e-04, 1.20879123e-02, 4.21245443e-03, 6.22710632e-03,
          7.14285718e-03, 9.34065972e-03, 8.42490885e-03, 1.00732604e-02,
          6.95970701e-03, 3.47985351e-03, 2.74725282e-03, 3.66300368e-03,
          4.39560460e-03, 3.47985351e-03, 3.84615385e-03, 3.66300374e-04,
          2.38095247e-03, 4.94505512e-03, 6.77655684e-03, 2.74725282e-03,
          3.29670333e-03, 6.22710632e-03, 1.20879123e-02, 1.13553116e-02,
          5.12820529e-03, 3.29670333e-03, 7.87545834e-03, 3.47985351e-03,
          8.24175868e-03, 2.38095247e-03, 1.28205132e-03, 5.12820529e-03,
          7.69230770e-03, 6.41025649e-03, 4.02930425e-03, 3.11355316e-03,
          3.29670333e-03, 7.32600747e-04, 5.31135546e-03, 3.29670333e-03,
          4.21245443e-03, 1.26373628e-02, 7.32600747e-04, 4.57875477e-03,
          3.66300368e-03, 2.93040299e-03, 2.56410264e-03, 5.49450575e-04,
          5.49450575e-04, 1.13553116e-02, 0., 1.33699635e-02,
          1.83150187e-04, 3.29670333e-03, 3.84615385e-03, 1.04395607e-02,
          5.49450563e-03, 9.70696006e-03, 8.42490885e-03, 2.56410264e-03,
          5.12820529e-03, 5.12820529e-03, 5.86080598e-03, 0.,
          1.83150184e-03, 0., 5.31135546e-03, 5.67765580e-03 ]
      - [ 1.96945909e-02, 3.28243198e-03, 3.28243198e-03, 2.28343089e-03,
          2.28343089e-03, 1.85528758e-03, 6.13672053e-03, 6.56486396e-03,
          6.13672053e-03, 1.42714428e-03, 1.95518769e-02, 4.99500521e-03,
          1.08462963e-02, 5.99400606e-03, 5.70857723e-04, 4.13871836e-03,
          5.28043415e-03, 1.85528758e-03, 7.13572139e-04, 1.42714428e-03,
          4.56686178e-03, 6.99300691e-03, 4.56686178e-03, 8.42015166e-03,
          1.24161551e-02, 4.56686178e-03, 6.99300691e-03, 5.42314816e-03,
          1.34151569e-02, 2.28343089e-03, 3.71057517e-03, 2.99700303e-03,
          2.42614537e-03, 4.28143283e-03, 5.70857711e-03, 7.27843586e-03,
          2.28343089e-03, 2.56885984e-03, 9.99000971e-04, 4.13871836e-03,
          2.28343089e-03, 6.99300691e-03, 2.14071642e-03, 2.99700303e-03,
          1.99800194e-03, 6.70757843e-03, 5.85129159e-03, 7.27843586e-03,
          2.02654488e-02, 8.56286567e-03, 2.28343089e-03, 2.71157408e-03,
          1.99800194e-03, 3.42514645e-03, 4.85229073e-03, 1.34151569e-02,
          3.28243198e-03, 9.99000971e-04, 1.28442992e-03, 3.71057517e-03,
          3.99600388e-03, 7.99200777e-03, 2.28343089e-03, 4.56686178e-03,
          1.71257323e-03, 9.99000971e-04, 3.42514645e-03, 1.71257323e-03,
          1.34151569e-02, 4.13871836e-03, 2.14071642e-03, 6.13672053e-03,
          2.85428856e-03, 5.13771968e-03, 8.56286613e-04, 9.13372356e-03,
          0., 6.13672053e-03, 4.70957626e-03, 1.56985875e-03,
          5.42314816e-03, 6.13672053e-03, 3.16826031e-02, 3.99600388e-03,
          3.71057517e-03, 2.85428856e-03, 6.56486396e-03, 9.99000971e-04,
          7.70657929e-03, 1.01327244e-02, 5.13771968e-03, 1.99800194e-03,
          1.71257323e-03, 1.74111612e-02, 7.13572139e-03, 2.71157408e-03,
          2.71157408e-03, 1.14171545e-03, 3.28243198e-03, 1.39860138e-02,
          5.70857711e-03, 3.85328964e-03, 7.42115034e-03, 1.42714428e-03,
          3.99600388e-03, 5.42314816e-03, 2.85428856e-03, 3.42514645e-03,
          3.99600388e-03, 3.56786069e-03, 8.84829462e-03, 3.71057517e-03,
          2.99700303e-03, 4.28143283e-03, 2.42614537e-03, 6.70757843e-03,
          1.42714431e-04, 7.13572139e-04, 3.13971750e-03, 7.70657929e-03,
          3.13971750e-03, 9.99000971e-04, 9.27643757e-03, 2.85428856e-03,
          4.70957626e-03, 3.71057517e-03, 1.42714428e-03, 5.85129159e-03,
          2.28343089e-03, 5.56586264e-03, 3.71057517e-03, 1.71257323e-03,
          3.99600388e-03, 7.13572139e-04, 5.56586264e-03, 9.13372356e-03,
          1.85528758e-03, 8.56286613e-04, 8.56286613e-04, 3.85328964e-03,
          2.85428856e-03, 1.99800194e-03, 4.56686178e-03, 2.28343089e-03,
          2.71157408e-03, 2.42614537e-03, 4.42414731e-03, 2.04081628e-02,
          2.42614537e-03, 3.28243198e-03, 3.56786069e-03, 1.28442992e-03,
          5.42314816e-03, 5.99400606e-03, 2.28343089e-03, 3.28243198e-03,
          8.42015166e-03, 2.85428856e-03, 5.13771968e-03, 5.70857711e-03,
          8.13472271e-03, 3.13971750e-03, 1.24161551e-02, 4.13871836e-03,
          4.13871836e-03, 2.85428856e-03, 2.85428856e-03, 1.71257323e-03,
          2.85428856e-03, 2.71157408e-03, 2.42614537e-03, 2.56885984e-03,
          1.42714431e-04, 8.56286613e-04, 2.78293137e-02, 2.28343089e-03,
          3.42514645e-03, 3.28243198e-03, 4.56686178e-03, 1.28442992e-03,
          1.69830173e-02, 5.70857711e-03, 1.11317253e-02, 9.99000971e-04,
          2.61167400e-02, 3.56786069e-03, 8.56286567e-03, 7.13572139e-04,
          1.71257323e-03, 3.85328964e-03, 2.28343089e-03, 4.42414731e-03,
          1.99800194e-03, 6.13672053e-03, 1.42714428e-03, 4.13871836e-03,
          1.42714428e-03, 1.54131586e-02, 2.85428856e-03, 4.42414731e-03 ]
   decision_functions:
      -
         sv_count: 8
         rho: -1.8427830944016496e-01
         alpha: [ 9.3679805628896418e+01, 1.5741015334272689e+02,
             2.8667279748513085e+01, 1.7951532262138855e+02,
             -2.2836581288970879e+02, -7.8609663410423039e+01,
             -2.6421819622892755e+01, -1.2587526541850023e+02 ]
         index: [ 0, 1, 2, 3, 4, 5, 6, 7 ]
      -
         sv_count: 8
         rho: -6.6597106598174982e-01
         alpha: [ 1.8118981108441056e+02, 1.5861136339631963e+02,
             4.5307840035753813e+01, 2.4050413170034651e+02,
             -1.4698518521968154e+02, -1.9277007595123391e+02,
             -1.6118933262717755e+02, -1.2466855241873756e+02 ]
         index: [ 0, 1, 2, 3, 8, 9, 10, 11 ]
      -
         sv_count: 8
         rho: -2.7710242102046245e-01
         alpha: [ 2.3849164383966041e+02, 6.0359332645724521e+01,
             3.3736656428901796e+01, 2.1904090318690945e+02,
             -1.5544806233858844e+02, -9.6781043384520430e+01,
             -2.0858006201673959e+02, -9.0819368361347713e+01 ]
         index: [ 4, 5, 6, 7, 8, 9, 10, 11 ]
